static const float linear_weight_0[] = {0.016669389, -0.033094537, -0.01614051, 0.118603036, -0.009616963, -0.029509354, 0.07971498, 0.02230857, -0.0005321476, 0.034512732, -0.025243554, 0.019926984, 0.028897658, -0.012467552, -0.009163175, -0.03418863, -0.034000356, -0.025615852, -0.041472215, -0.031116098, -0.0052039907, -0.0011459513, -0.003146704, 0.02456332, -0.036196906, 0.022826327, -0.030323297, 0.01558406, 0.039725684, -0.0896591, -0.044699386, -0.006664103, -0.053634875, -0.013977743, -0.012860547, 0.043347184, 0.03907035, -0.049906056, -0.027422668, 0.031020006, -0.027071385, -0.017472195, 0.17328654, 0.11190024, 0.026494002, -0.00980187, -0.057216678, 0.0067100963, -0.003005698, 0.009455205, 0.041615486, -0.008228307, 0.058013387, -0.046362057, -0.02070839, -0.0048428667, -0.052225385, 0.13122548, -0.024810627, -0.032081988, -0.025683872, 0.038744085, -0.024885086, 0.021239148, -0.061820053, -0.06947636, -0.027810512, 0.06995124, 0.00039713772, 0.036288317, -0.028919676, 0.027743248, 0.09131704, 0.019801795, -0.049204376, -0.004357077, 0.01749618, -0.0846972, 0.042600077, 0.03133122, 0.021079885, -0.006676225, -0.0037938722, 0.02394289, -0.07085939, 0.013230626, 0.04499606, -0.0054684766, 0.16185495, 0.019939788, -0.039883744, 0.050343443, 0.012026809, -0.079334944, -0.006705846, 0.0019518981, 0.037275285, -0.014326908, 0.056751188, 0.006971686, -0.0245883, -0.081382215, -0.024130622, 0.030576892, -0.008472123, -0.016966121, 0.0066796676, -0.089112826, 0.045065258, -0.0143904295, 0.007455132, 0.07369658, -0.044271946, 0.03839032, -0.086898565, -0.030852273, 0.04253793, -0.025201632, -0.025886694, 0.023627324, 0.031977337, 0.02887802, 0.047550008, -0.034385234, -0.028277215, -0.005830705, -0.049238697, 0.02516393, -0.029310016, 0.06406828, 0.008656249, 0.0005332532, -0.039422777, -0.028264685, 0.03344542, -0.23813437, -0.020628158, -0.00013639033, 0.0066033616, 0.0049859867, -0.0081305625, -0.004618083, -0.019921033, -0.014966937, -0.021211522, -0.08119089, 0.00034124617, 0.007903755, -0.011095041, -0.06044644, -0.066901974, 0.010397119, 0.01769229, -0.0053057, 0.0564885, 0.00050553156, 0.03091685, 0.0073230844, 0.010677415, -0.027443921, -0.09026549, -0.010770493, 0.026331495, -0.018473186, 0.037716314, -0.01695878, 0.044536524, 0.012762716, 0.05839327, 0.13663335, 0.012273525, -0.02712402, -0.03196942, -0.02180448, 0.023694092, -0.038289387, -0.063619904, 0.015372491, -0.03773385, 0.060344014, 0.019164076, 0.04097289, 0.15615259, -0.03404938, -0.0053751552, 0.011096407, -0.03207056, 0.048970897, 0.029708521, -0.021324215, -0.03177159, -0.010862828, 0.028644074, 0.012458654, -0.015435594, 0.23864308, -0.025413781, 0.008833046, 0.010863172, -0.101983495, -0.014935805, -0.031393703, 0.010989495, -0.026080463, 0.026285797, 0.0099984, 0.00577492, -0.015441854, 0.047821146, -0.033735197, 0.27686623, -0.004079345, -0.0023860661, -0.07348279, -0.021811135, -0.16203026, -0.023878869, 0.031882286, -0.0042158556, 0.04959326, -0.059249636, 0.023604373, -0.06281252, 0.0013413696, -0.057315465, 0.035714183, -0.02096693, 0.051484823, -0.18986185, -0.060088206, 0.0045878137, 0.021393234, 0.044876087, -0.0071847048, 0.07735909, -0.10179407, 0.026393209, -0.032515597, -0.021894138, 0.020948099, -0.02337692, -0.1070439, -0.02264372, 0.030924123, -0.032680843, -0.013566245, 0.020066937, 0.0007528665, 0.11386541, 0.020687403, -0.060957648, -0.017340489, 0.01416295, 0.026908511, 0.015234447, 0.034423392, 0.0052128225, 0.029539432, -0.013321283, 0.034239348, 0.025430838, -0.020326527, -0.027137246, -0.02109398, -0.06536592, -0.1496075, 0.053686354, 0.010875381, 0.036029153, -0.0032557833, 0.028370969, -0.033574596, 0.035799783, 0.010052912, -0.013100407, 0.042464864, 0.01838335, -0.035221703, 0.024624698, 0.007423527, -0.046075772, 0.019243654, 0.034389496, -0.021784568, -0.030554827, 0.023183014, 0.042603374, 0.030687435, -0.00797611, 0.009035045, -0.025240377, 0.020895924, -0.025388015, 0.023217695, 0.020710373, -0.013904891, 0.056422267, -0.051903382, 0.031235972, 0.03611249, -8.554585e-05, -0.054233808, 0.041386966, 0.05164814, 0.051798627, -0.06086092, 0.024359709, -0.015285646, 0.046396717, -0.017298529, 0.020437842, 0.03149253, -0.028600184, -0.027419515, 0.041814085, 0.0059465184, -0.011931272, 0.07217737, 0.047495864, 0.013935168, 0.038166467, 0.006283877, 0.11533011, 0.121968724, -0.02422918, -0.05348654, -0.020803586, -0.08724453, -0.11212185, -0.028379856, 0.07479119, 0.0020330797, -0.048185345, 0.012237517, 9.132618e-05, -0.033804, -0.08933872, -0.07681518, 0.036065005, -0.03696121, 0.049584582, -0.041802008, -0.039391585, 0.038758695, 0.020833079, -0.04813528, 0.14487725, -0.0078094155, -0.026962053, 0.012798186, 0.038275704, -0.038443197, 0.017191004, -0.017146708, -0.0068416484, -0.10455046, 0.035266202, -0.035356335, -0.028395109, 0.03161367, -0.0122258505, -0.053891122, 0.055869244, 0.03661131, 0.056210592, 0.0079551395, 0.008841708, 0.027760267, -0.0191004, 0.004631822, -0.034553245, -0.002619382, 0.03230747, -0.16279581, -0.035635658, -0.01773247, -0.011551762, -0.02824001, 0.40268928, -0.069897816, 0.02304045, -0.003736774, 0.019841837, -0.083498456, -0.04204716, -0.009827227, 0.02575195, -0.0509199, 0.009553454, 0.02899651, -0.057091303, -0.06281507, -0.029910905, 0.073082924, -0.023690384, -0.02927938, 0.016223244, -0.018860785, -0.006701039, 0.035341155, 0.017359566, 0.029959397, -0.104992524, 0.012816437, -0.026771706, 0.054691155, -0.03718496, -0.031623535, 0.0020030835, 0.017150616, -0.026061215, 0.021708306, -0.00050143455, 0.20867112, -0.06819873, 0.014093949, -0.04481082, 0.21172637, -0.09178558, 0.0349657, -0.0702901, -0.030782713, 0.014997445, 0.03312362, 0.00060136116, 0.017974364, 0.034486864, 0.016765444, -0.048668463, 0.066650346, 0.085565135, -0.18736325, -0.03269468, 0.000943568, 0.008354638, -0.039549697, 0.021287851, 0.09044128, -0.008199684, -0.010238179, -0.0009897697, 0.0054794727, -0.05653763, -0.22034208, 0.009972953, 0.021224368, 0.041592132, -0.06427576, -0.014929781, 0.08291992, -0.093765706, -0.00549482, 0.01468473, -0.15336572, -0.02426957, 0.121215224, -0.0630953, 0.017543158, -0.02238014, 0.020533945, 0.033263296, 0.026845695, 0.0054970444, 0.057716276, -0.026931612, 0.04177153, 0.022506258, -0.050768312, 0.020075291, 0.040727623, 0.0004410887, -0.018384233, 0.016068554, -0.019854775, 0.014571836, 0.0013010579, 0.05494122, 0.14571685, 0.015840916, -0.000562157, -0.0517287, -0.044537846, 0.002215053, -0.008702795, 0.019291364, 0.0144097665, -0.017486375, 0.118813, -0.033859678, -0.028343748, -0.022578498, -0.064182594, 0.014913755, -0.09071448, 0.02540046, -0.023349721, -0.0072464384, 0.02445875, -0.041092247, -0.0153942155, -0.052460887, -0.002840754, -0.043869954, 0.050369546, -0.02033323, 0.0075742765, 0.01124691, 0.02861598, -0.04736911, -0.07387661, -0.036904655, 0.01183507, 0.020063905, -0.0266925, -0.008789954, -0.045391202, 0.29922366, -0.048258264, 0.043967083, -0.0052726846, -0.06719702, 0.05330357, -0.02788539, -0.03929317, -0.04401043, 0.010194033, -0.013105231, 0.022304801, 0.021451186, -0.02388547, -0.032869335, 0.014240723, -0.027251376, -0.05164485, -0.03148185, -0.03199208, 0.042958066, -0.06811298, 0.017999697, -0.031888817, 0.00897111, -0.009944017, -0.010178297, -0.026794014, -0.013224216, -0.06340899, 0.035265807, 0.016566187, -0.01972101, 0.016609108, -0.03918925, -0.040881846, 0.020064237, 0.01491676, -0.027569404, 0.049473483, 0.031797685, 0.25400114, 0.01690758, 0.04238976, 0.15041527, 0.036121503, 0.038901836, 0.00045359015, -0.021266185, -0.020112606, 0.0015180131, 0.0288533, -0.04950172, -0.23359396, -0.066276394, 0.0035629529, -0.023894299, -0.023465555, -0.047135737, -0.037235197, 0.027011463, -0.053749304, -0.015593955, 0.02032154, -0.034719758, 0.037722785, -0.02252428, 0.0026898058, 0.030244408, -0.0053003966, 0.01727296, -0.020582093, -0.051423702, 0.13210607, 0.037289232, -0.048775442, -0.0812829, -0.003665614, -0.117961176, -0.028055124, -0.0053230645, -0.00024844456, -0.02185514, 0.04024536, 0.041061163, 0.007564095, 0.027030366, 0.021321777, -0.010127823, 0.017355096, -0.013556653, 0.20190844, 0.106728755, -0.21462499, 0.0646338, -0.31095544, -0.028267631, -0.007655301, 0.017683143, -0.01800987, -0.043086376, 0.025613103, 0.025256572, 0.06579625, 0.026301002, -0.02640793, 0.15937825, -0.010572286, 0.020863539, 0.015413779, -0.026214568, 0.021500235, -0.014680533, 0.0446022, 0.012769208, 0.03154955, 0.10446358, 0.014230829, 0.021488044, 0.045705926, -0.008363387, -0.3726201, -0.027476156, -0.37990174, 0.22111416, -0.17024231, -0.29832062, -0.04035772, 0.013546297, 0.015164101, -0.0055852253, 0.054468103, -0.025261547, 0.010507456, -0.037997603, 0.010146031, -0.032031, -0.027824013, 0.005739942, -0.037648685, -0.027323632, 0.03409812, -0.02820363, 0.036853686, -0.013170345, -0.05314761, 0.10501473, 0.016281465, -0.0111919455, 0.0034392877, -0.0119984215, 0.05411783, -0.0312539, 0.2657142, 0.0339427, -0.03110082, 0.048321676, -0.20574245, 0.010568964, 0.2024278, 0.022513213, 0.043935385, -0.019639852, 0.02988267, 0.030595785, 0.020833153, -0.042035762, 0.027299821, 0.0044900547, 0.06562114, 0.02201905, 0.0075172842, 0.011598098, 0.009681517, 0.009504255, -0.04887069, -0.036554217, -0.003888498, 0.1394838, 0.023935178, 0.013870573, -0.020046294, 0.06864478, 0.053077154, -0.032399133, 0.013389308, 0.015184894, 0.010689063, -0.01793019, -0.07372454, 0.035351455, -0.059063517, 0.021127159, -0.025313966, 0.0751078, -0.007311185, 0.029306404, -0.04250444, -0.025831658, 0.105526894, 0.10309513, 0.016600927, -0.05317401, -0.017351558, -0.032901436, 0.036832586, 0.010935929, 0.00022771108, -0.03365825, 0.060547788, -0.016087584, -0.042935345, 0.024098786, -0.037942022, 0.008184496, -0.031921756, 0.0147543885, -0.0025896812, 0.113246776, 0.043427296, 0.028403128, 0.015660116, -0.015680382, -0.019747728, 0.08195864, -0.058505904, -0.008119982, -0.089772046, 0.23024037, -0.0038192112, 0.016317641, 0.0060066096, -0.047518134, 0.02685608, 0.0003353107, 0.031108055, 0.01926876, 0.0436803, -0.24822222, -0.06877696, -0.05789908, 0.021649202, -0.017526282, -0.014947653, 0.035336513, 0.027680298, -0.058265798, -0.0674207, 0.035035133, 0.043769002, -0.07017718, 0.043905314, 0.028517578, -0.11909065, 0.034720525, -0.052432396, -0.031368017, 0.023199301, 0.025623562, 0.03899325, 0.33322066, -0.05760411, -0.04610362, 0.079562, -0.012634685, 0.10625796, 0.0048285043, -0.1577824, 0.01009446, 0.062022388, 0.042621538, 0.018799724, -0.023169544, 0.035255354, 0.0061151637, -0.02028896, 0.007420276, 0.027513843, 0.009709113, -0.018306265, 0.0012181544, 0.026159206, -0.040107448, 0.00066464685, -0.019348055, 0.105865635, 0.046036407, -0.23135962, 0.038845792, 0.017108258, 0.223504, -0.068115294, -0.0075441203, -0.075270936, 0.012252247, -0.026250428, 0.0056527737, -0.17636497, 0.032807548, 0.00017021009, 0.024315665, 0.04724827, -0.00074354466, -0.03927196, 0.05870782, 0.06307841, -0.03221345, 0.043226495, 0.0049734963, -0.023324234, -0.034124848, 0.016092576, -0.45439202, 0.010618735, 0.2894892, -0.0075229607, 0.03707509, 0.022215933, 0.043316398, -0.025619196, 0.031164324, -0.04492274, -0.08777566, -0.0065356856, -0.038392965, 0.0076724184, 0.054209262, -0.038745306, 0.0069900528, -0.037401594, -0.017667314, -0.03985542, 0.11355339, -0.000995532, -0.0029379558, -0.0120696, -0.06295199, -0.026475947, -0.0150147695, -0.022242358, -0.021297578, -0.021562213, -0.010948503, 0.03895064, -0.0005136869, 0.018912693, -0.033766195, -0.022058424, 0.074922666, 0.024470381, -0.02427133, 0.034017712, 0.003204382, 0.037029866, -0.028440429, -0.04943339, -0.31552947, -0.006649933, -0.020685058, -0.038448375, 0.23811047, 0.006415026, -0.030516276, 0.12847155, -0.14230973, 0.00614965, -0.038028874, -0.031480692, 0.02796207, -0.042119917, -0.03774882, -0.021655533, -0.023002844, -0.0061598, 0.040513884, -0.0057098423, -0.06785061, -0.030429408, -0.046001513, 0.003379791, 0.01581306, -0.2236355, 0.020092806, -0.060100336, 0.014442181, -0.0055702203, 0.15292458, 0.012894184, 0.012580027, -0.13088484, 0.016027357, -0.044635966, -0.032301437, 0.047479875, -0.03596265, 0.008680529, 0.019654062, 0.06826144, 0.03069489, -0.014453063, -0.038600925, -0.041412592, -0.0473206, -0.027232485, -0.017158832, -0.00913596, 0.015437311, 0.039285284, -0.0014912263, 0.0187119, -0.004524764, -0.025513116, 0.019886363, 0.0341281, 0.035766, 0.025925133, -0.034464706, 6.776095e-05, 0.022753876, -0.025395997, -0.011570695, -0.012992871, 0.035219055, 0.030073036, -0.04379153, 0.23923919, 0.022605129, -0.021977963, -0.0022330652, 0.023929894, 0.018393023, -0.034867685, -0.00464725, 0.04576138, 0.03077291, -0.013847415, 0.07140402, -0.05469981, -0.029682243, -0.051898826, -0.03599979, -0.020204766, -0.057054818, 0.00535051, 0.02332658, -0.065253854, -0.037719484, 0.014205776, -0.028602974, 0.018759025, -0.022937858, -0.025348136, -0.020105453, -0.012698416, 0.011092129, -0.0052967495, 0.0055735186, -0.24683632, 0.015846867, 0.076176055, 0.0336841, -0.024736853, -0.0144458255, 0.17325981, 0.020129282, -0.029129088, 0.025647506, 0.11466696, -0.038362905, -0.020401463, 0.02157811, -0.014574529, 0.02508215, -0.016375342, -0.030994484, -0.15310682, 0.039529257, 0.024934111, 0.016518747, -0.06464849, 0.057524838, 0.04761217, 0.116243005, 0.14922395};
const float linear_biases[] = {-0.011164223};
